<?xml version="1.0"?>
<opencv_storage>
<cascade>
  <stageType>BOOST</stageType>
  <featureType>HAAR</featureType>
  <height>20</height>
  <width>20</width>
  <stageParams>
    <boostType>GAB</boostType>
    <minHitRate>9.9500000476837158e-01</minHitRate>
    <maxFalseAlarm>5.0000000000000000e-01</maxFalseAlarm>
    <weightTrimRate>9.4999999999999996e-01</weightTrimRate>
    <maxDepth>1</maxDepth>
    <maxWeakCount>100</maxWeakCount></stageParams>
  <featureParams>
    <maxCatCount>0</maxCatCount>
    <featSize>1</featSize>
    <mode>BASIC</mode></featureParams>
  <stageNum>20</stageNum>
  <stages>
    <!-- stage 0 -->
    <_>
      <maxWeakCount>6</maxWeakCount>
      <stageThreshold>-1.7470898628234863e+00</stageThreshold>
      <weakClassifiers>
        <_>
          <internalNodes>
            0 -1 110 -1.0505737736821175e-02</internalNodes>
          <leafValues>
            8.0287927389144897e-01 -6.5392351150512695e-01</leafValues></_>
        <_>
          <internalNodes>
            0 -1 7 8.0271679908037186e-03</internalNodes>
          <leafValues>
            -5.5712550878524780e-01 7.1921652555465698e-01</leafValues></_>
        <_>
          <internalNodes>
            0 -1 66 -9.2416685074567795e-03</internalNodes>
          <leafValues>
            7.5996398925781250e-01 -4.0664583444595337e-01</leafValues></_>
        <_>
          <internalNodes>
            0 -1 100 1.9123528152704239e-02</internalNodes>
          <leafValues>
            -2.9857712984085083e-01 7.9317551851272583e-01</leafValues></_>
        <_>
          <internalNodes>
            0 -1 12 -1.1541999410837889e-03</internalNodes>
          <leafValues>
            5.3531396389007568e-01 -5.9100776910781860e-01</leafValues></_>
        <_>
          <internalNodes>
            0 -1 93 -3.6131851375102997e-03</internalNodes>
          <leafValues>
            5.0417995452880859e-01 -5.1615220308303833e-01</leafValues></_></weakClassifiers></_>
    <!-- stage 1 -->
    <_>
      <maxWeakCount>6</maxWeakCount>
      <stageThreshold>-8.2648044824600220e-01</stageThreshold>
      <weakClassifiers>
        <_>
          <internalNodes>
            0 -1 56 -1.9707817584276199e-02</internalNodes>
          <leafValues>
            8.1006866693496704e-01 -5.8555132150650024e-01</leafValues></_>
        <_>
          <internalNodes>
            0 -1 160 -7.5940145179629326e-03</internalNodes>
          <leafValues>
            7.7668666839599609e-01 -4.8964807391166687e-01</leafValues></_>
        <_>
          <internalNodes>
            0 -1 31 -2.1836026571691036e-03</internalNodes>
          <leafValues>
            5.4949152469635010e-01 -5.4184377193450928e-01</leafValues></_>
        <_>
          <internalNodes>
            0 -1 65 -1.1303038336336613e-02</internalNodes>
          <leafValues>
            6.2689477205276489e-01 -4.2059615254402161e-01</leafValues></_>
        <_>
          <internalNodes>
            0 -1 88 -5.4244045168161392e-03</internalNodes>
          <leafValues>
            5.2857285737991333e-01 -4.8343983292579651e-01</leafValues></_>
        <_>
          <internalNodes>
            0 -1 154 -3.5070059821009636e-03</internalNodes>
          <leafValues>
            6.8258607387542725e-01 -4.0317982435226440e-01</leafValues></_></weakClassifiers></_>
    <!-- stage 2 -->
    <_>
      <maxWeakCount>6</maxWeakCount>
      <stageThreshold>-5.4969507455825806e-01</stageThreshold>
      <weakClassifiers>
        <_>
          <internalNodes>
            0 -1 165 -2.7782758697867393e-02</internalNodes>
          <leafValues>
            8.2745099067687988e-01 -3.6692914366722107e-01</leafValues></_>
        <_>
          <internalNodes>
            0 -1 4 1.3756959699094296e-02</internalNodes>
          <leafValues>
            -3.9070856571197510e-01 7.1917021274566650e-01</leafValues></_>
        <_>
          <internalNodes>
            0 -1 101 1.4198912307620049e-02</internalNodes>
          <leafValues>
            -3.4086757898330688e-01 7.1389329433441162e-01</leafValues></_>
        <_>
          <internalNodes>
            0 -1 28 1.3282187283039093e-02</internalNodes>
          <leafValues>
            -3.4520563483238220e-01 6.8142241239547729e-01</leafValues></_>
        <_>
          <internalNodes>
            0 -1 94 -3.9504724554717541e-03</internalNodes>
          <leafValues>
            4.1473734378814697e-01 -5.9137469530105591e-01</leafValues></_>
        <_>
          <internalNodes>
            0 -1 15 1.4931727200746536e-03</internalNodes>
          <leafValues>
            -4.8756533861160278e-01 4.7927844524383545e-01</leafValues></_></weakClassifiers></_>
    <!-- stage 3 -->
    <_>
      <maxWeakCount>8</maxWeakCount>
      <stageThreshold>-1.1232016086578369e+00</stageThreshold>
      <weakClassifiers>
        <_>
          <internalNodes>
            0 -1 102 4.4974975287914276e-02</internalNodes>
          <leafValues>
            -5.2360516786575317e-01 6.8950748443603516e-01</leafValues></_>
        <_>
          <internalNodes>
            0 -1 139 1.3672532513737679e-02</internalNodes>
          <leafValues>
            -3.4665483236312866e-01 7.3476076126098633e-01</leafValues></_>
        <_>
          <internalNodes>
            0 -1 78 4.7322604805231094e-03</internalNodes>
          <leafValues>
            -4.4165310263633728e-01 5.4841274023056030e-01</leafValues></_>
        <_>
          <internalNodes>
            0 -1 193 -7.5730211101472378e-03</internalNodes>
          <leafValues>
            4.9295634031295776e-01 -3.9052489399909973e-01</leafValues></_>
        <_>
          <internalNodes>
            0 -1 25 -6.4338892698287964e-03</internalNodes>
          <leafValues>
            3.3811920881271362e-01 -5.7988440990447998e-01</leafValues></_>
        <_>
          <internalNodes>
            0 -1 83 3.1227100407704711e-04</internalNodes>
          <leafValues>
            3.3055233955383301e-01 -6.3143807649612427e-01</leafValues></_>
        <_>
          <internalNodes>
            0 -1 96 -1.8560802564024925e-02</internalNodes>
          <leafValues>
            6.2001305818557739e-01 -3.0208194255828857e-01</leafValues></_>
        <_>
          <internalNodes>
            0 -1 46 -3.2706940546631813e-03</internalNodes>
          <leafValues>
            -8.2096660137176514e-01 2.1264681220054626e-01</leafValues></_></weakClassifiers></_>
    <!-- stage 4 -->
    <_>
      <maxWeakCount>10</maxWeakCount>
      <stageThreshold>-9.5665907859802246e-01</stageThreshold>
      <weakClassifiers>
        <_>
          <internalNodes>
            0 -1 43 -1.8610734492540359e-02</internalNodes>
          <leafValues>
            6.6340935230255127e-01 -4.4050103425979614e-01</leafValues></_>
        <_>
          <internalNodes>
            0 -1 53 3.6587148904800415e-02</internalNodes>
          <leafValues>
            -3.9415788650512695e-01 6.4595109224319458e-01</leafValues></_>
        <_>
          <internalNodes>
            0 -1 189 1.6962811350822449e-02</internalNodes>
          <leafValues>
            -2.7298593521118164e-01 7.2577071189880371e-01</leafValues></_>
        <_>
          <internalNodes>
            0 -1 2 1.7967892810702324e-02</internalNodes>
          <leafValues>
            -2.5084859132766724e-01 6.2749922275543213e-01</leafValues></_>
        <_>
          <internalNodes>
            0 -1 103 -4.6934761485317722e-05</internalNodes>
          <leafValues>
            2.7030187845230103e-01 -5.6854003667831421e-01</leafValues></_>
        <_>
          <internalNodes>
            0 -1 142 -9.3305241316556931e-03</internalNodes>
          <leafValues>
            5.7665669918060303e-01 -3.0840998888015747e-01</leafValues></_>
        <_>
          <internalNodes>
            0 -1 174 3.9961431175470352e-03</internalNodes>
          <leafValues>
            -2.1098536252975464e-01 6.5779453516006470e-01</leafValues></_>
        <_>
          <internalNodes>
            0 -1 133 -4.8945745220407844e-04</internalNodes>
          <leafValues>
            -6.5242356061935425e-01 2.8218376636505127e-01</leafValues></_>
        <_>
          <internalNodes>
            0 -1 51 -8.0096482997760177e-04</internalNodes>
          <leafValues>
            -7.4681526422500610e-01 1.8504174053668976e-01</leafValues></_>
        <_>
          <internalNodes>
            0 -1 39 8.8986463379114866e-04</internalNodes>
          <leafValues>
            1.8370231986045837e-01 -7.3413258790969849e-01</leafValues></_></weakClassifiers></_>
    <!-- stage 5 -->
    <_>
      <maxWeakCount>10</maxWeakCount>
      <stageThreshold>-1.2460886240005493e+00</stageThreshold>
      <weakClassifiers>
        <_>
          <internalNodes>
            0 -1 182 1.6102448105812073e-02</internalNodes>
          <leafValues>
            -4.0926641225814819e-01 6.9387757778167725e-01</leafValues></_>
        <_>
          <internalNodes>
            0 -1 62 2.3742415010929108e-02</internalNodes>
          <leafValues>
            -3.3273211121559143e-01 7.1615719795227051e-01</leafValues></_>
        <_>
          <internalNodes>
            0 -1 205 -3.0217983294278383e-03</internalNodes>
          <leafValues>
            4.5055827498435974e-01 -4.7156256437301636e-01</leafValues></_>
        <_>
          <internalNodes>
            0 -1 145 1.5358009841293097e-03</internalNodes>
          <leafValues>
            -6.2505817413330078e-01 2.9318967461585999e-01</leafValues></_>
        <_>
          <internalNodes>
            0 -1 38 4.3339114636182785e-02</internalNodes>
          <leafValues>
            -2.7506387233734131e-01 6.8082034587860107e-01</leafValues></_>
        <_>
          <internalNodes>
            0 -1 154 -5.2444171160459518e-03</internalNodes>
          <leafValues>
            6.3026535511016846e-01 -2.0948882400989532e-01</leafValues></_>
        <_>
          <internalNodes>
            0 -1 151 1.3861655257642269e-02</internalNodes>
          <leafValues>
            -2.5094816088676453e-01 7.6066470146179199e-01</leafValues></_>
        <_>
          <internalNodes>
            0 -1 67 -2.2688752505928278e-03</internalNodes>
          <leafValues>
            -6.0732501745223999e-01 2.5084289908409119e-01</leafValues></_>
        <_>
          <internalNodes>
            0 -1 92 1.5585305169224739e-02</internalNodes>
          <leafValues>
            -3.0588829517364502e-01 4.4998687505722046e-01</leafValues></_>
        <_>
          <internalNodes>
            0 -1 40 -3.4177483757957816e-04</internalNodes>
          <leafValues>
            -5.7614374160766602e-01 2.7993300557136536e-01</leafValues></_></weakClassifiers></_>
    <!-- stage 6 -->
    <_>
      <maxWeakCount>9</maxWeakCount>
      <stageThreshold>-1.1680222749710083e+00</stageThreshold>
      <weakClassifiers>
        <_>
          <internalNodes>
            0 -1 116 -1.2623970396816730e-02</internalNodes>
          <leafValues>
            6.8125700950622559e-01 -4.0667974948883057e-01</leafValues></_>
        <_>
          <internalNodes>
            0 -1 167 2.2016687318682671e-02</internalNodes>
          <leafValues>
            -3.2287117838859558e-01 5.4207891225814819e-01</leafValues></_>
        <_>
          <internalNodes>
            0 -1 96 -7.4620088562369347e-03</internalNodes>
          <leafValues>
            3.6332273483276367e-01 -4.4327852129936218e-01</leafValues></_>
        <_>
          <internalNodes>
            0 -1 3 1.3854142278432846e-02</internalNodes>
          <leafValues>
            -3.9033001661300659e-01 3.9736193418502808e-01</leafValues></_>
        <_>
          <internalNodes>
            0 -1 112 -3.6632150295190513e-04</internalNodes>
          <leafValues>
            2.6435661315917969e-01 -6.4620804786682129e-01</leafValues></_>
        <_>
          <internalNodes>
            0 -1 55 -1.9498776644468307e-02</internalNodes>
          <leafValues>
            -6.9077920913696289e-01 1.9052530825138092e-01</leafValues></_>
        <_>
          <internalNodes>
            0 -1 191 5.5074243573471904e-04</internalNodes>
          <leafValues>
            -5.0759625434875488e-01 2.3616632819175720e-01</leafValues></_>
        <_>
          <internalNodes>
            0 -1 9 2.7525750920176506e-03</internalNodes>
          <leafValues>
            1.8212671577930450e-01 -8.3016562461853027e-01</leafValues></_>
        <_>
          <internalNodes>
            0 -1 83 -2.8565879911184311e-03</internalNodes>
          <leafValues>
            2.6572474837303162e-01 -5.6356102228164673e-01</leafValues></_></weakClassifiers></_>
    <!-- stage 7 -->
    <_>
      <maxWeakCount>10</maxWeakCount>
      <stageThreshold>-1.0057821273803711e+00</stageThreshold>
      <weakClassifiers>
        <_>
          <internalNodes>
            0 -1 122 4.0982295759022236e-03</internalNodes>
          <leafValues>
            -4.1609194874763489e-01 6.0207253694534302e-01</leafValues></_>
        <_>
          <internalNodes>
            0 -1 61 3.4278769046068192e-02</internalNodes>
          <leafValues>
            -4.0224668383598328e-01 5.3316777944564819e-01</leafValues></_>
        <_>
          <internalNodes>
            0 -1 99 1.9509012345224619e-03</internalNodes>
          <leafValues>
            2.4954947829246521e-01 -6.4171701669692993e-01</leafValues></_>
        <_>
          <internalNodes>
            0 -1 131 1.7504367278888822e-03</internalNodes>
          <leafValues>
            2.2983174026012421e-01 -6.8923616409301758e-01</leafValues></_>
        <_>
          <internalNodes>
            0 -1 121 -8.2390643656253815e-03</internalNodes>
          <leafValues>
            6.0190153121948242e-01 -2.8513869643211365e-01</leafValues></_>
        <_>
          <internalNodes>
            0 -1 17 2.2441782057285309e-03</internalNodes>
          <leafValues>
            1.9593214988708496e-01 -7.6260924339294434e-01</leafValues></_>
        <_>
          <internalNodes>
            0 -1 181 -9.4743713270872831e-04</internalNodes>
          <leafValues>
            -6.2135571241378784e-01 2.1835921704769135e-01</leafValues></_>
        <_>
          <internalNodes>
            0 -1 91 1.7224032431840897e-02</internalNodes>
          <leafValues>
            -2.6833209395408630e-01 5.7622218132019043e-01</leafValues></_>
        <_>
          <internalNodes>
            0 -1 125 -2.5353000964969397e-03</internalNodes>
          <leafValues>
            -6.7562055587768555e-01 2.1957661211490631e-01</leafValues></_>
        <_>
          <internalNodes>
            0 -1 24 -2.4047840852290392e-03</internalNodes>
          <leafValues>
            -7.8499227762222290e-01 1.6700662672519684e-01</leafValues></_></weakClassifiers></_>
    <!-- stage 8 -->
    <_>
      <maxWeakCount>11</maxWeakCount>
      <stageThreshold>-1.0742580890655518e+00</stageThreshold>
      <weakClassifiers>
        <_>
          <internalNodes>
            0 -1 8 9.6841165795922279e-03</internalNodes>
          <leafValues>
            -4.0576496720314026e-01 6.1433088779449463e-01</leafValues></_>
        <_>
          <internalNodes>
            0 -1 110 -1.7696041613817215e-02</internalNodes>
          <leafValues>
            4.2728132009506226e-01 -5.4966419935226440e-01</leafValues></_>
        <_>
          <internalNodes>
            0 -1 199 -1.1713087558746338e-02</internalNodes>
          <leafValues>
            5.0645506381988525e-01 -3.8878256082534790e-01</leafValues></_>
        <_>
          <internalNodes>
            0 -1 70 1.1983664706349373e-02</internalNodes>
          <leafValues>
            -3.2833978533744812e-01 5.3243356943130493e-01</leafValues></_>
        <_>
          <internalNodes>
            0 -1 86 1.5594912692904472e-03</internalNodes>
          <leafValues>
            -5.1382142305374146e-01 3.5175833106040955e-01</leafValues></_>
        <_>
          <internalNodes>
            0 -1 35 1.3976442627608776e-02</internalNodes>
          <leafValues>
            -2.4219849705696106e-01 7.3757332563400269e-01</leafValues></_>
        <_>
          <internalNodes>
            0 -1 41 -3.9164425106719136e-04</internalNodes>
          <leafValues>
            -5.6546163558959961e-01 3.2361111044883728e-01</leafValues></_>
        <_>
          <internalNodes>
            0 -1 172 1.2393508106470108e-02</internalNodes>
          <leafValues>
            -2.4964945018291473e-01 7.4033820629119873e-01</leafValues></_>
        <_>
          <internalNodes>
            0 -1 170 -2.4601458571851254e-03</internalNodes>
          <leafValues>
            6.7119395732879639e-01 -2.6408424973487854e-01</leafValues></_>
        <_>
          <internalNodes>
            0 -1 79 5.5607138201594353e-03</internalNodes>
          <leafValues>
            -3.9502900838851929e-01 4.1460391879081726e-01</leafValues></_>
        <_>
          <internalNodes>
            0 -1 166 -6.9909440353512764e-03</internalNodes>
          <leafValues>
            -6.2605470418930054e-01 2.3459435999393463e-01</leafValues></_></weakClassifiers></_>
    <!-- stage 9 -->
    <_>
      <maxWeakCount>10</maxWeakCount>
      <stageThreshold>-1.2507176399230957e+00</stageThreshold>
      <weakClassifiers>
        <_>
          <internalNodes>
            0 -1 107 1.9594427198171616e-02</internalNodes>
          <leafValues>
            -4.3176734447479248e-01 6.2224555015563965e-01</leafValues></_>
        <_>
          <internalNodes>
            0 -1 147 4.6129953116178513e-03</internalNodes>
          <leafValues>
            -2.8303775191307068e-01 7.1332645416259766e-01</leafValues></_>
        <_>
          <internalNodes>
            0 -1 74 -6.9874059408903122e-03</internalNodes>
          <leafValues>
            3.8784277439117432e-01 -5.1920175552368164e-01</leafValues></_>
        <_>
          <internalNodes>
            0 -1 36 -1.0270013008266687e-03</internalNodes>
          <leafValues>
            3.7903606891632080e-01 -5.1039785146713257e-01</leafValues></_>
        <_>
          <internalNodes>
            0 -1 156 -4.0143248625099659e-03</internalNodes>
          <leafValues>
            7.2383576631546021e-01 -2.7244403958320618e-01</leafValues></_>
        <_>
          <internalNodes>
            0 -1 196 -2.7384632267057896e-03</internalNodes>
          <leafValues>
            4.0796151757240295e-01 -4.8725399374961853e-01</leafValues></_>
        <_>
          <internalNodes>
            0 -1 98 -9.9507765844464302e-04</internalNodes>
          <leafValues>
            2.5752457976341248e-01 -5.4085403680801392e-01</leafValues></_>
        <_>
          <internalNodes>
            0 -1 173 -6.6411513835191727e-03</internalNodes>
          <leafValues>
            4.0767884254455566e-01 -3.6963075399398804e-01</leafValues></_>
        <_>
          <internalNodes>
            0 -1 58 -2.3289951495826244e-03</internalNodes>
          <leafValues>
            4.7787669301033020e-01 -2.7843627333641052e-01</leafValues></_>
        <_>
          <internalNodes>
            0 -1 126 3.1568801496177912e-03</internalNodes>
          <leafValues>
            -2.4765224754810333e-01 5.8190286159515381e-01</leafValues></_></weakClassifiers></_>
    <!-- stage 10 -->
    <_>
      <maxWeakCount>14</maxWeakCount>
      <stageThreshold>-1.4304109811782837e+00</stageThreshold>
      <weakClassifiers>
        <_>
          <internalNodes>
            0 -1 160 -1.1386877857148647e-02</internalNodes>
          <leafValues>
            6.2400907278060913e-01 -2.9206964373588562e-01</leafValues></_>
        <_>
          <internalNodes>
            0 -1 65 -7.4963197112083435e-03</internalNodes>
          <leafValues>
            3.9274585247039795e-01 -4.8988860845565796e-01</leafValues></_>
        <_>
          <internalNodes>
            0 -1 54 4.0193587541580200e-02</internalNodes>
          <leafValues>
            -3.3614730834960938e-01 5.1881611347198486e-01</leafValues></_>
        <_>
          <internalNodes>
            0 -1 57 -4.0697623044252396e-03</internalNodes>
          <leafValues>
            4.3300667405128479e-01 -3.4440180659294128e-01</leafValues></_>
        <_>
          <internalNodes>
            0 -1 32 2.8329731430858374e-03</internalNodes>
          <leafValues>
            -4.0017142891883850e-01 3.8022643327713013e-01</leafValues></_>
        <_>
          <internalNodes>
            0 -1 76 3.6296080797910690e-03</internalNodes>
          <leafValues>
            2.3753464221954346e-01 -6.9061732292175293e-01</leafValues></_>
        <_>
          <internalNodes>
            0 -1 204 -3.5266735358163714e-04</internalNodes>
          <leafValues>
            2.1074299514293671e-01 -5.5250799655914307e-01</leafValues></_>
        <_>
          <internalNodes>
            0 -1 72 -8.3972830325365067e-03</internalNodes>
          <leafValues>
            5.0326806306838989e-01 -2.4367448687553406e-01</leafValues></_>
        <_>
          <internalNodes>
            0 -1 162 9.4631053507328033e-03</internalNodes>
          <leafValues>
            -2.2040908038616180e-01 5.8461695909500122e-01</leafValues></_>
        <_>
          <internalNodes>
            0 -1 0 1.1601160513237119e-03</internalNodes>
          <leafValues>
            2.4894671142101288e-01 -5.0010204315185547e-01</leafValues></_>
        <_>
          <internalNodes>
            0 -1 152 1.7411010339856148e-02</internalNodes>
          <leafValues>
            -1.6029132902622223e-01 8.4215098619461060e-01</leafValues></_>
        <_>
          <internalNodes>
            0 -1 185 1.3782635796815157e-03</internalNodes>
          <leafValues>
            2.5736546516418457e-01 -5.6455326080322266e-01</leafValues></_>
        <_>
          <internalNodes>
            0 -1 80 -6.6632702946662903e-03</internalNodes>
          <leafValues>
            2.6859620213508606e-01 -4.4471597671508789e-01</leafValues></_>
        <_>
          <internalNodes>
            0 -1 150 -1.9716706592589617e-03</internalNodes>
          <leafValues>
            3.6285659670829773e-01 -3.3586561679840088e-01</leafValues></_></weakClassifiers></_>
    <!-- stage 11 -->
    <_>
      <maxWeakCount>11</maxWeakCount>
      <stageThreshold>-1.2010868787765503e+00</stageThreshold>
      <weakClassifiers>
        <_>
          <internalNodes>
            0 -1 115 -4.1969586163759232e-02</internalNodes>
          <leafValues>
            6.3151514530181885e-01 -2.1043477952480316e-01</leafValues></_>
        <_>
          <internalNodes>
            0 -1 64 1.3720650225877762e-02</internalNodes>
          <leafValues>
            -4.5991718769073486e-01 3.8630297780036926e-01</leafValues></_>
        <_>
          <internalNodes>
            0 -1 5 1.0246574878692627e-02</internalNodes>
          <leafValues>
            -5.3339445590972900e-01 3.0710774660110474e-01</leafValues></_>
        <_>
          <internalNodes>
            0 -1 203 -7.3838625103235245e-03</internalNodes>
          <leafValues>
            4.1311153769493103e-01 -3.3104690909385681e-01</leafValues></_>
        <_>
          <internalNodes>
            0 -1 148 -2.2407844662666321e-03</internalNodes>
          <leafValues>
            5.6612002849578857e-01 -2.4422430992126465e-01</leafValues></_>
        <_>
          <internalNodes>
            0 -1 128 -8.3894748240709305e-03</internalNodes>
          <leafValues>
            -7.4059557914733887e-01 1.9800917804241180e-01</leafValues></_>
        <_>
          <internalNodes>
            0 -1 169 -3.6100395955145359e-03</internalNodes>
          <leafValues>
            5.1711380481719971e-01 -3.2770708203315735e-01</leafValues></_>
        <_>
          <internalNodes>
            0 -1 153 -2.3061996325850487e-03</internalNodes>
          <leafValues>
            5.5262517929077148e-01 -2.6463398337364197e-01</leafValues></_>
        <_>
          <internalNodes>
            0 -1 37 2.2728116164216772e-05</internalNodes>
          <leafValues>
            -4.3106928467750549e-01 3.5372519493103027e-01</leafValues></_>
        <_>
          <internalNodes>
            0 -1 14 -9.5581868663430214e-04</internalNodes>
          <leafValues>
            3.4461721777915955e-01 -4.1150048375129700e-01</leafValues></_>
        <_>
          <internalNodes>
            0 -1 117 5.5946661159396172e-03</internalNodes>
          <leafValues>
            2.1277879178524017e-01 -6.8696224689483643e-01</leafValues></_></weakClassifiers></_>
    <!-- stage 12 -->
    <_>
      <maxWeakCount>12</maxWeakCount>
      <stageThreshold>-1.0668174028396606e+00</stageThreshold>
      <weakClassifiers>
        <_>
          <internalNodes>
            0 -1 163 -2.7704209089279175e-02</internalNodes>
          <leafValues>
            5.9735971689224243e-01 -2.9124236106872559e-01</leafValues></_>
        <_>
          <internalNodes>
            0 -1 27 -5.5208522826433182e-03</internalNodes>
          <leafValues>
            3.6543646454811096e-01 -4.9481624364852905e-01</leafValues></_>
        <_>
          <internalNodes>
            0 -1 44 -5.3669023327529430e-03</internalNodes>
          <leafValues>
            3.7383833527565002e-01 -4.5020782947540283e-01</leafValues></_>
        <_>
          <internalNodes>
            0 -1 113 2.9013976454734802e-03</internalNodes>
          <leafValues>
            2.1760578453540802e-01 -6.8997383117675781e-01</leafValues></_>
        <_>
          <internalNodes>
            0 -1 10 2.2327762097120285e-02</internalNodes>
          <leafValues>
            -5.8006322383880615e-01 2.2114506363868713e-01</leafValues></_>
        <_>
          <internalNodes>
            0 -1 89 -1.9718864932656288e-03</internalNodes>
          <leafValues>
            -6.9397121667861938e-01 1.7131246626377106e-01</leafValues></_>
        <_>
          <internalNodes>
            0 -1 60 5.2858702838420868e-02</internalNodes>
          <leafValues>
            -3.1515300273895264e-01 4.4340574741363525e-01</leafValues></_>
        <_>
          <internalNodes>
            0 -1 134 2.4648993276059628e-03</internalNodes>
          <leafValues>
            2.4251826107501984e-01 -5.1851880550384521e-01</leafValues></_>
        <_>
          <internalNodes>
            0 -1 186 2.5261115297325887e-05</internalNodes>
          <leafValues>
            -5.2941459417343140e-01 2.5849607586860657e-01</leafValues></_>
        <_>
          <internalNodes>
            0 -1 141 1.0884627699851990e-03</internalNodes>
          <leafValues>
            1.5724971890449524e-01 -6.8402576446533203e-01</leafValues></_>
        <_>
          <internalNodes>
            0 -1 11 -1.4269333332777023e-03</internalNodes>
          <leafValues>
            -5.7320702075958252e-01 1.6230432689189911e-01</leafValues></_>
        <_>
          <internalNodes>
            0 -1 136 9.4226635992527008e-03</internalNodes>
          <leafValues>
            -1.9993411004543304e-01 5.8972108364105225e-01</leafValues></_></weakClassifiers></_>
    <!-- stage 13 -->
    <_>
      <maxWeakCount>12</maxWeakCount>
      <stageThreshold>-9.5382130146026611e-01</stageThreshold>
      <weakClassifiers>
        <_>
          <internalNodes>
            0 -1 7 8.0839823931455612e-03</internalNodes>
          <leafValues>
            -4.1011235117912292e-01 5.2298849821090698e-01</leafValues></_>
        <_>
          <internalNodes>
            0 -1 119 -8.3951838314533234e-03</internalNodes>
          <leafValues>
            2.8469294309616089e-01 -6.5062487125396729e-01</leafValues></_>
        <_>
          <internalNodes>
            0 -1 195 -1.3411456719040871e-02</internalNodes>
          <leafValues>
            4.9331924319267273e-01 -3.3690044283866882e-01</leafValues></_>
        <_>
          <internalNodes>
            0 -1 93 -6.5606869757175446e-03</internalNodes>
          <leafValues>
            3.9091274142265320e-01 -4.2779672145843506e-01</leafValues></_>
        <_>
          <internalNodes>
            0 -1 42 1.6289263963699341e-02</internalNodes>
          <leafValues>
            -3.5276800394058228e-01 3.6753106117248535e-01</leafValues></_>
        <_>
          <internalNodes>
            0 -1 171 1.1542258784174919e-02</internalNodes>
          <leafValues>
            -2.2422419488430023e-01 6.5589106082916260e-01</leafValues></_>
        <_>
          <internalNodes>
            0 -1 168 -6.3050715252757072e-03</internalNodes>
          <leafValues>
            7.3632490634918213e-01 -2.3208503425121307e-01</leafValues></_>
        <_>
          <internalNodes>
            0 -1 20 1.6529679298400879e-02</internalNodes>
          <leafValues>
            -1.4460873603820801e-01 6.8211984634399414e-01</leafValues></_>
        <_>
          <internalNodes>
            0 -1 22 6.2001356855034828e-04</internalNodes>
          <leafValues>
            2.1761533617973328e-01 -5.9629702568054199e-01</leafValues></_>
        <_>
          <internalNodes>
            0 -1 97 8.7610131595283747e-04</internalNodes>
          <leafValues>
            1.6228567063808441e-01 -5.9861308336257935e-01</leafValues></_>
        <_>
          <internalNodes>
            0 -1 109 4.2063870932906866e-04</internalNodes>
          <leafValues>
            -4.0134537220001221e-01 2.7588903903961182e-01</leafValues></_>
        <_>
          <internalNodes>
            0 -1 68 -6.1239167116582394e-03</internalNodes>
          <leafValues>
            -5.8050262928009033e-01 1.7481923103332520e-01</leafValues></_></weakClassifiers></_>
    <!-- stage 14 -->
    <_>
      <maxWeakCount>16</maxWeakCount>
      <stageThreshold>-1.0499960184097290e+00</stageThreshold>
      <weakClassifiers>
        <_>
          <internalNodes>
            0 -1 56 -2.9798552393913269e-02</internalNodes>
          <leafValues>
            5.9114855527877808e-01 -3.5698446631431580e-01</leafValues></_>
        <_>
          <internalNodes>
            0 -1 137 1.3963869772851467e-02</internalNodes>
          <leafValues>
            -2.7284967899322510e-01 5.7602143287658691e-01</leafValues></_>
        <_>
          <internalNodes>
            0 -1 59 -1.0560238733887672e-02</internalNodes>
          <leafValues>
            3.5768756270408630e-01 -3.8517105579376221e-01</leafValues></_>
        <_>
          <internalNodes>
            0 -1 183 2.6145149022340775e-02</internalNodes>
          <leafValues>
            -3.5025167465209961e-01 3.5636281967163086e-01</leafValues></_>
        <_>
          <internalNodes>
            0 -1 85 1.0066412505693734e-04</internalNodes>
          <leafValues>
            -5.1220649480819702e-01 2.2310683131217957e-01</leafValues></_>
        <_>
          <internalNodes>
            0 -1 34 -1.8962937247124501e-05</internalNodes>
          <leafValues>
            2.5649234652519226e-01 -4.6498081088066101e-01</leafValues></_>
        <_>
          <internalNodes>
            0 -1 177 3.3144588087452576e-05</internalNodes>
          <leafValues>
            -4.3402519822120667e-01 2.5112479925155640e-01</leafValues></_>
        <_>
          <internalNodes>
            0 -1 187 2.4718146305531263e-03</internalNodes>
          <leafValues>
            1.7334486544132233e-01 -5.9963434934616089e-01</leafValues></_>
        <_>
          <internalNodes>
            0 -1 13 -2.7326014824211597e-03</internalNodes>
          <leafValues>
            -5.4879742860794067e-01 1.7595812678337097e-01</leafValues></_>
        <_>
          <internalNodes>
            0 -1 98 3.1889062374830246e-03</internalNodes>
          <leafValues>
            1.4090460538864136e-01 -7.1745073795318604e-01</leafValues></_>
        <_>
          <internalNodes>
            0 -1 84 -1.7616722732782364e-02</internalNodes>
          <leafValues>
            7.5571954250335693e-01 -1.4992931485176086e-01</leafValues></_>
        <_>
          <internalNodes>
            0 -1 52 -1.4067292795516551e-04</internalNodes>
          <leafValues>
            3.2808706164360046e-01 -4.0078088641166687e-01</leafValues></_>
        <_>
          <internalNodes>
            0 -1 176 -2.4996176362037659e-02</internalNodes>
          <leafValues>
            5.7327395677566528e-01 -1.8072699010372162e-01</leafValues></_>
        <_>
          <internalNodes>
            0 -1 197 -1.2035951949656010e-02</internalNodes>
          <leafValues>
            4.9197718501091003e-01 -2.1304747462272644e-01</leafValues></_>
        <_>
          <internalNodes>
            0 -1 104 -5.2678751671919599e-05</internalNodes>
          <leafValues>
            3.0232244729995728e-01 -3.9696699380874634e-01</leafValues></_>
        <_>
          <internalNodes>
            0 -1 198 -6.2741097062826157e-03</internalNodes>
          <leafValues>
            4.7967392206192017e-01 -2.2694250941276550e-01</leafValues></_></weakClassifiers></_>
    <!-- stage 15 -->
    <_>
      <maxWeakCount>11</maxWeakCount>
      <stageThreshold>-9.1592752933502197e-01</stageThreshold>
      <weakClassifiers>
        <_>
          <internalNodes>
            0 -1 202 -5.2953767590224743e-04</internalNodes>
          <leafValues>
            5.0525307655334473e-01 -3.6543908715248108e-01</leafValues></_>
        <_>
          <internalNodes>
            0 -1 102 8.4334298968315125e-02</internalNodes>
          <leafValues>
            -3.7055450677871704e-01 4.1651061177253723e-01</leafValues></_>
        <_>
          <internalNodes>
            0 -1 158 5.4315170273184776e-03</internalNodes>
          <leafValues>
            -4.0605455636978149e-01 3.1727552413940430e-01</leafValues></_>
        <_>
          <internalNodes>
            0 -1 29 -1.0801889933645725e-02</internalNodes>
          <leafValues>
            2.9184287786483765e-01 -4.3941757082939148e-01</leafValues></_>
        <_>
          <internalNodes>
            0 -1 127 2.4948336184024811e-02</internalNodes>
          <leafValues>
            1.7400716245174408e-01 -7.5811225175857544e-01</leafValues></_>
        <_>
          <internalNodes>
            0 -1 71 4.2080273851752281e-03</internalNodes>
          <leafValues>
            -4.3133518099784851e-01 2.5261560082435608e-01</leafValues></_>
        <_>
          <internalNodes>
            0 -1 111 2.1551596000790596e-03</internalNodes>
          <leafValues>
            1.9069142639636993e-01 -6.3947898149490356e-01</leafValues></_>
        <_>
          <internalNodes>
            0 -1 175 1.6827337443828583e-02</internalNodes>
          <leafValues>
            -2.1600024402141571e-01 6.5789932012557983e-01</leafValues></_>
        <_>
          <internalNodes>
            0 -1 200 -1.3698745518922806e-02</internalNodes>
          <leafValues>
            7.1243059635162354e-01 -1.5213844180107117e-01</leafValues></_>
        <_>
          <internalNodes>
            0 -1 178 4.8367781564593315e-03</internalNodes>
          <leafValues>
            2.1354113519191742e-01 -5.7690435647964478e-01</leafValues></_>
        <_>
          <internalNodes>
            0 -1 140 -1.2898412533104420e-03</internalNodes>
          <leafValues>
            -6.6787064075469971e-01 1.5796031057834625e-01</leafValues></_></weakClassifiers></_>
    <!-- stage 16 -->
    <_>
      <maxWeakCount>13</maxWeakCount>
      <stageThreshold>-7.4244123697280884e-01</stageThreshold>
      <weakClassifiers>
        <_>
          <internalNodes>
            0 -1 63 -1.7745967954397202e-02</internalNodes>
          <leafValues>
            5.7589286565780640e-01 -2.3015873134136200e-01</leafValues></_>
        <_>
          <internalNodes>
            0 -1 2 1.6491439193487167e-02</internalNodes>
          <leafValues>
            -3.5470816493034363e-01 4.1015607118606567e-01</leafValues></_>
        <_>
          <internalNodes>
            0 -1 87 1.1873536277562380e-03</internalNodes>
          <leafValues>
            2.0440189540386200e-01 -6.1898094415664673e-01</leafValues></_>
        <_>
          <internalNodes>
            0 -1 120 -3.8736085407435894e-03</internalNodes>
          <leafValues>
            5.6309759616851807e-01 -2.2306543588638306e-01</leafValues></_>
        <_>
          <internalNodes>
            0 -1 12 -1.6923688817769289e-03</internalNodes>
          <leafValues>
            2.7202481031417847e-01 -4.0558746457099915e-01</leafValues></_>
        <_>
          <internalNodes>
            0 -1 47 2.9934721533209085e-04</internalNodes>
          <leafValues>
            -4.0593263506889343e-01 3.2101908326148987e-01</leafValues></_>
        <_>
          <internalNodes>
            0 -1 164 -5.4398030042648315e-02</internalNodes>
          <leafValues>
            4.2305371165275574e-01 -2.9212418198585510e-01</leafValues></_>
        <_>
          <internalNodes>
            0 -1 6 -1.9746807217597961e-01</internalNodes>
          <leafValues>
            7.1286165714263916e-01 -1.5045538544654846e-01</leafValues></_>
        <_>
          <internalNodes>
            0 -1 19 -3.2293405383825302e-03</internalNodes>
          <leafValues>
            -6.7389267683029175e-01 1.9970946013927460e-01</leafValues></_>
        <_>
          <internalNodes>
            0 -1 132 1.0950518772006035e-02</internalNodes>
          <leafValues>
            -1.8692822754383087e-01 7.3824656009674072e-01</leafValues></_>
        <_>
          <internalNodes>
            0 -1 179 -2.2426482290029526e-02</internalNodes>
          <leafValues>
            -5.5103921890258789e-01 2.2460798919200897e-01</leafValues></_>
        <_>
          <internalNodes>
            0 -1 161 -8.4649433847516775e-04</internalNodes>
          <leafValues>
            -6.2898361682891846e-01 1.5220454335212708e-01</leafValues></_>
        <_>
          <internalNodes>
            0 -1 129 -1.2843395583331585e-02</internalNodes>
          <leafValues>
            -7.4669033288955688e-01 1.3389807939529419e-01</leafValues></_></weakClassifiers></_>
    <!-- stage 17 -->
    <_>
      <maxWeakCount>15</maxWeakCount>
      <stageThreshold>-1.1391676664352417e+00</stageThreshold>
      <weakClassifiers>
        <_>
          <internalNodes>
            0 -1 73 9.7674538847059011e-04</internalNodes>
          <leafValues>
            -3.6482939124107361e-01 5.2894997596740723e-01</leafValues></_>
        <_>
          <internalNodes>
            0 -1 149 4.6080779284238815e-03</internalNodes>
          <leafValues>
            -1.5157897770404816e-01 7.3527854681015015e-01</leafValues></_>
        <_>
          <internalNodes>
            0 -1 108 1.1674134060740471e-02</internalNodes>
          <leafValues>
            -5.3799009323120117e-01 2.5752592086791992e-01</leafValues></_>
        <_>
          <internalNodes>
            0 -1 75 -7.9569239169359207e-03</internalNodes>
          <leafValues>
            2.7265948057174683e-01 -4.3913036584854126e-01</leafValues></_>
        <_>
          <internalNodes>
            0 -1 95 -1.0816544294357300e-02</internalNodes>
          <leafValues>
            5.3036791086196899e-01 -2.2188913822174072e-01</leafValues></_>
        <_>
          <internalNodes>
            0 -1 82 -1.5976719558238983e-02</internalNodes>
          <leafValues>
            7.3339903354644775e-01 -1.6847361624240875e-01</leafValues></_>
        <_>
          <internalNodes>
            0 -1 16 1.6414649784564972e-02</internalNodes>
          <leafValues>
            -2.3395958542823792e-01 4.8435556888580322e-01</leafValues></_>
        <_>
          <internalNodes>
            0 -1 155 -3.9761369116604328e-03</internalNodes>
          <leafValues>
            4.3193012475967407e-01 -2.5580602884292603e-01</leafValues></_>
        <_>
          <internalNodes>
            0 -1 201 -1.1945804581046104e-02</internalNodes>
          <leafValues>
            4.0576645731925964e-01 -2.6896613836288452e-01</leafValues></_>
        <_>
          <internalNodes>
            0 -1 69 9.6043739467859268e-03</internalNodes>
          <leafValues>
            -2.1589106321334839e-01 4.8646211624145508e-01</leafValues></_>
        <_>
          <internalNodes>
            0 -1 1 -1.0741263395175338e-03</internalNodes>
          <leafValues>
            -6.6665744781494141e-01 1.7465351521968842e-01</leafValues></_>
        <_>
          <internalNodes>
            0 -1 31 -2.9712216928601265e-03</internalNodes>
          <leafValues>
            2.2824335098266602e-01 -5.0547617673873901e-01</leafValues></_>
        <_>
          <internalNodes>
            0 -1 184 -9.9573610350489616e-04</internalNodes>
          <leafValues>
            -5.5349111557006836e-01 1.9500423967838287e-01</leafValues></_>
        <_>
          <internalNodes>
            0 -1 143 -3.3565124031156301e-03</internalNodes>
          <leafValues>
            -6.9115996360778809e-01 1.4946077764034271e-01</leafValues></_>
        <_>
          <internalNodes>
            0 -1 45 2.3666406050324440e-03</internalNodes>
          <leafValues>
            1.2331029772758484e-01 -7.0361232757568359e-01</leafValues></_></weakClassifiers></_>
    <!-- stage 18 -->
    <_>
      <maxWeakCount>16</maxWeakCount>
      <stageThreshold>-1.1214004755020142e+00</stageThreshold>
      <weakClassifiers>
        <_>
          <internalNodes>
            0 -1 124 3.3227833919227123e-03</internalNodes>
          <leafValues>
            -3.6962750554084778e-01 5.0333017110824585e-01</leafValues></_>
        <_>
          <internalNodes>
            0 -1 144 2.9840521514415741e-02</internalNodes>
          <leafValues>
            -2.6173886656761169e-01 4.8791438341140747e-01</leafValues></_>
        <_>
          <internalNodes>
            0 -1 123 -4.5863427221775055e-03</internalNodes>
          <leafValues>
            -6.2894910573959351e-01 1.9605498015880585e-01</leafValues></_>
        <_>
          <internalNodes>
            0 -1 48 8.7320124730467796e-03</internalNodes>
          <leafValues>
            -2.9820480942726135e-01 3.6168912053108215e-01</leafValues></_>
        <_>
          <internalNodes>
            0 -1 81 6.6300883889198303e-02</internalNodes>
          <leafValues>
            -1.2523341178894043e-01 8.4459000825881958e-01</leafValues></_>
        <_>
          <internalNodes>
            0 -1 90 -1.9248062744736671e-02</internalNodes>
          <leafValues>
            3.9684203267097473e-01 -3.6259791254997253e-01</leafValues></_>
        <_>
          <internalNodes>
            0 -1 18 1.0887186974287033e-02</internalNodes>
          <leafValues>
            -2.0027437806129456e-01 5.3401935100555420e-01</leafValues></_>
        <_>
          <internalNodes>
            0 -1 26 5.8964997529983521e-02</internalNodes>
          <leafValues>
            -1.3340170681476593e-01 7.4084556102752686e-01</leafValues></_>
        <_>
          <internalNodes>
            0 -1 77 -5.7026380673050880e-03</internalNodes>
          <leafValues>
            -5.9756487607955933e-01 1.9879451394081116e-01</leafValues></_>
        <_>
          <internalNodes>
            0 -1 135 6.7297448404133320e-03</internalNodes>
          <leafValues>
            -1.7319159209728241e-01 6.2232172489166260e-01</leafValues></_>
        <_>
          <internalNodes>
            0 -1 130 1.0603014379739761e-02</internalNodes>
          <leafValues>
            -1.4987100660800934e-01 7.2215121984481812e-01</leafValues></_>
        <_>
          <internalNodes>
            0 -1 146 4.9800320994108915e-04</internalNodes>
          <leafValues>
            2.3312851786613464e-01 -4.5692268013954163e-01</leafValues></_>
        <_>
          <internalNodes>
            0 -1 21 -1.3778114691376686e-02</internalNodes>
          <leafValues>
            4.1815406084060669e-01 -2.8101709485054016e-01</leafValues></_>
        <_>
          <internalNodes>
            0 -1 190 6.0729537159204483e-02</internalNodes>
          <leafValues>
            -1.4035440981388092e-01 7.5561743974685669e-01</leafValues></_>
        <_>
          <internalNodes>
            0 -1 180 -1.5283010434359312e-03</internalNodes>
          <leafValues>
            -5.3535437583923340e-01 1.9967676699161530e-01</leafValues></_>
        <_>
          <internalNodes>
            0 -1 157 -3.9092507213354111e-03</internalNodes>
          <leafValues>
            4.0844956040382385e-01 -2.4905593693256378e-01</leafValues></_></weakClassifiers></_>
    <!-- stage 19 -->
    <_>
      <maxWeakCount>16</maxWeakCount>
      <stageThreshold>-1.0267155170440674e+00</stageThreshold>
      <weakClassifiers>
        <_>
          <internalNodes>
            0 -1 167 2.2263515740633011e-02</internalNodes>
          <leafValues>
            -1.7625899612903595e-01 5.9004741907119751e-01</leafValues></_>
        <_>
          <internalNodes>
            0 -1 23 -6.9871358573436737e-03</internalNodes>
          <leafValues>
            3.1898948550224304e-01 -4.6927145123481750e-01</leafValues></_>
        <_>
          <internalNodes>
            0 -1 114 2.2518644109368324e-02</internalNodes>
          <leafValues>
            -5.6430548429489136e-01 2.3843486607074738e-01</leafValues></_>
        <_>
          <internalNodes>
            0 -1 118 -5.1694334251806140e-04</internalNodes>
          <leafValues>
            2.6266604661941528e-01 -4.1866338253021240e-01</leafValues></_>
        <_>
          <internalNodes>
            0 -1 33 1.9463621079921722e-02</internalNodes>
          <leafValues>
            -2.1325206756591797e-01 6.2407392263412476e-01</leafValues></_>
        <_>
          <internalNodes>
            0 -1 106 1.1570825008675456e-03</internalNodes>
          <leafValues>
            1.5432980656623840e-01 -6.4692884683609009e-01</leafValues></_>
        <_>
          <internalNodes>
            0 -1 192 1.4341682253871113e-04</internalNodes>
          <leafValues>
            -4.1016304492950439e-01 2.5033813714981079e-01</leafValues></_>
        <_>
          <internalNodes>
            0 -1 169 -4.7659892588853836e-03</internalNodes>
          <leafValues>
            4.7561615705490112e-01 -2.2776585817337036e-01</leafValues></_>
        <_>
          <internalNodes>
            0 -1 49 5.0311163067817688e-03</internalNodes>
          <leafValues>
            -3.1297841668128967e-01 3.6399284005165100e-01</leafValues></_>
        <_>
          <internalNodes>
            0 -1 159 -2.3977909237146378e-02</internalNodes>
          <leafValues>
            5.7440233230590820e-01 -1.9041869044303894e-01</leafValues></_>
        <_>
          <internalNodes>
            0 -1 50 4.7780521214008331e-02</internalNodes>
          <leafValues>
            -1.4354082942008972e-01 7.3528516292572021e-01</leafValues></_>
        <_>
          <internalNodes>
            0 -1 194 1.1547409230843186e-03</internalNodes>
          <leafValues>
            1.7917285859584808e-01 -7.1701353788375854e-01</leafValues></_>
        <_>
          <internalNodes>
            0 -1 138 -1.6952047590166330e-03</internalNodes>
          <leafValues>
            2.8479635715484619e-01 -3.5198339819908142e-01</leafValues></_>
        <_>
          <internalNodes>
            0 -1 105 -3.2200220972299576e-02</internalNodes>
          <leafValues>
            -7.1219003200531006e-01 1.4481247961521149e-01</leafValues></_>
        <_>
          <internalNodes>
            0 -1 188 2.2252634167671204e-02</internalNodes>
          <leafValues>
            -1.6537095606327057e-01 6.9974297285079956e-01</leafValues></_>
        <_>
          <internalNodes>
            0 -1 30 -5.3914785385131836e-02</internalNodes>
          <leafValues>
            6.0356777906417847e-01 -1.8714594841003418e-01</leafValues></_></weakClassifiers></_></stages>
  <features>
    <_>
      <rects>
        <_>
          0 0 4 1 -1.</_>
        <_>
          2 0 2 1 2.</_></rects>
      <tilted>0</tilted></_>
    <_>
      <rects>
        <_>
          0 1 2 1 -1.</_>
        <_>
          1 1 1 1 2.</_></rects>
      <tilted>0</tilted></_>
    <_>
      <rects>
        <_>
          0 3 2 13 -1.</_>
        <_>
          1 3 1 13 2.</_></rects>
      <tilted>0</tilted></_>
    <_>
      <rects>
        <_>
          0 3 2 14 -1.</_>
        <_>
          1 3 1 14 2.</_></rects>
      <tilted>0</tilted></_>
    <_>
      <rects>
        <_>
          0 4 2 13 -1.</_>
        <_>
          1 4 1 13 2.</_></rects>
      <tilted>0</tilted></_>
    <_>
      <rects>
        <_>
          0 4 2 16 -1.</_>
        <_>
          1 4 1 16 2.</_></rects>
      <tilted>0</tilted></_>
    <_>
      <rects>
        <_>
          0 4 11 14 -1.</_>
        <_>
          0 11 11 7 2.</_></rects>
      <tilted>0</tilted></_>
    <_>
      <rects>
        <_>
          0 5 2 12 -1.</_>
        <_>
          1 5 1 12 2.</_></rects>
      <tilted>0</tilted></_>
    <_>
      <rects>
        <_>
          0 5 2 15 -1.</_>
        <_>
          1 5 1 15 2.</_></rects>
      <tilted>0</tilted></_>
    <_>
      <rects>
        <_>
          0 7 3 2 -1.</_>
        <_>
          0 8 3 1 2.</_></rects>
      <tilted>0</tilted></_>
    <_>
      <rects>
        <_>
          0 7 18 3 -1.</_>
        <_>
          6 7 6 3 3.</_></rects>
      <tilted>0</tilted></_>
    <_>
      <rects>
        <_>
          0 9 1 3 -1.</_>
        <_>
          0 10 1 1 3.</_></rects>
      <tilted>0</tilted></_>
    <_>
      <rects>
        <_>
          0 9 3 2 -1.</_>
        <_>
          1 9 1 2 3.</_></rects>
      <tilted>0</tilted></_>
    <_>
      <rects>
        <_>
          0 9 3 3 -1.</_>
        <_>
          0 10 3 1 3.</_></rects>
      <tilted>0</tilted></_>
    <_>
      <rects>
        <_>
          0 10 3 1 -1.</_>
        <_>
          1 10 1 1 3.</_></rects>
      <tilted>0</tilted></_>
    <_>
      <rects>
        <_>
          0 10 2 4 -1.</_>
        <_>
          0 10 1 2 2.</_>
        <_>
          1 12 1 2 2.</_></rects>
      <tilted>0</tilted></_>
    <_>
      <rects>
        <_>
          0 11 2 7 -1.</_>
        <_>
          1 11 1 7 2.</_></rects>
      <tilted>0</tilted></_>
    <_>
      <rects>
        <_>
          0 11 4 2 -1.</_>
        <_>
          0 11 2 1 2.</_>
        <_>
          2 12 2 1 2.</_></rects>
      <tilted>0</tilted></_>
    <_>
      <rects>
        <_>
          0 12 2 3 -1.</_>
        <_>
          1 12 1 3 2.</_></rects>
      <tilted>0</tilted></_>
    <_>
      <rects>
        <_>
          0 12 4 2 -1.</_>
        <_>
          0 12 2 1 2.</_>
        <_>
          2 13 2 1 2.</_></rects>
      <tilted>0</tilted></_>
    <_>
      <rects>
        <_>
          0 16 14 2 -1.</_>
        <_>
          0 16 7 1 2.</_>
        <_>
          7 17 7 1 2.</_></rects>
      <tilted>0</tilted></_>
    <_>
      <rects>
        <_>
          0 17 15 2 -1.</_>
        <_>
          5 17 5 2 3.</_></rects>
      <tilted>0</tilted></_>
    <_>
      <rects>
        <_>
          0 18 2 2 -1.</_>
        <_>
          0 18 1 1 2.</_>
        <_>
          1 19 1 1 2.</_></rects>
      <tilted>0</tilted></_>
    <_>
      <rects>
        <_>
          0 18 16 2 -1.</_>
        <_>
          0 19 16 1 2.</_></rects>
      <tilted>0</tilted></_>
    <_>
      <rects>
        <_>
          1 0 4 2 -1.</_>
        <_>
          1 0 2 1 2.</_>
        <_>
          3 1 2 1 2.</_></rects>
      <tilted>0</tilted></_>
    <_>
      <rects>
        <_>
          1 4 1 12 -1.</_>
        <_>
          1 8 1 4 3.</_></rects>
      <tilted>0</tilted></_>
    <_>
      <rects>
        <_>
          1 5 6 14 -1.</_>
        <_>
          1 5 3 7 2.</_>
        <_>
          4 12 3 7 2.</_></rects>
      <tilted>0</tilted></_>
    <_>
      <rects>
        <_>
          1 6 1 9 -1.</_>
        <_>
          1 9 1 3 3.</_></rects>
      <tilted>0</tilted></_>
    <_>
      <rects>
        <_>
          1 6 3 8 -1.</_>
        <_>
          2 6 1 8 3.</_></rects>
      <tilted>0</tilted></_>
    <_>
      <rects>
        <_>
          1 6 4 8 -1.</_>
        <_>
          3 6 2 8 2.</_></rects>
      <tilted>0</tilted></_>
    <_>
      <rects>
        <_>
          1 6 6 12 -1.</_>
        <_>
          1 6 3 6 2.</_>
        <_>
          4 12 3 6 2.</_></rects>
      <tilted>0</tilted></_>
    <_>
      <rects>
        <_>
          1 7 1 6 -1.</_>
        <_>
          1 9 1 2 3.</_></rects>
      <tilted>0</tilted></_>
    <_>
      <rects>
        <_>
          1 7 2 4 -1.</_>
        <_>
          1 7 1 2 2.</_>
        <_>
          2 9 1 2 2.</_></rects>
      <tilted>0</tilted></_>
    <_>
      <rects>
        <_>
          1 8 3 5 -1.</_>
        <_>
          2 8 1 5 3.</_></rects>
      <tilted>0</tilted></_>
    <_>
      <rects>
        <_>
          1 9 1 3 -1.</_>
        <_>
          1 10 1 1 3.</_></rects>
      <tilted>0</tilted></_>
    <_>
      <rects>
        <_>
          1 9 3 5 -1.</_>
        <_>
          2 9 1 5 3.</_></rects>
      <tilted>0</tilted></_>
    <_>
      <rects>
        <_>
          1 10 2 4 -1.</_>
        <_>
          1 10 1 2 2.</_>
        <_>
          2 12 1 2 2.</_></rects>
      <tilted>0</tilted></_>
    <_>
      <rects>
        <_>
          1 12 2 2 -1.</_>
        <_>
          1 13 2 1 2.</_></rects>
      <tilted>0</tilted></_>
    <_>
      <rects>
        <_>
          1 12 8 8 -1.</_>
        <_>
          1 12 4 4 2.</_>
        <_>
          5 16 4 4 2.</_></rects>
      <tilted>0</tilted></_>
    <_>
      <rects>
        <_>
          1 18 2 2 -1.</_>
        <_>
          1 18 1 1 2.</_>
        <_>
          2 19 1 1 2.</_></rects>
      <tilted>0</tilted></_>
    <_>
      <rects>
        <_>
          1 19 2 1 -1.</_>
        <_>
          2 19 1 1 2.</_></rects>
      <tilted>0</tilted></_>
    <_>
      <rects>
        <_>
          2 0 2 1 -1.</_>
        <_>
          3 0 1 1 2.</_></rects>
      <tilted>0</tilted></_>
    <_>
      <rects>
        <_>
          2 4 8 4 -1.</_>
        <_>
          2 4 4 2 2.</_>
        <_>
          6 6 4 2 2.</_></rects>
      <tilted>0</tilted></_>
    <_>
      <rects>
        <_>
          2 5 6 10 -1.</_>
        <_>
          4 5 2 10 3.</_></rects>
      <tilted>0</tilted></_>
    <_>
      <rects>
        <_>
          2 7 2 9 -1.</_>
        <_>
          3 7 1 9 2.</_></rects>
      <tilted>0</tilted></_>
    <_>
      <rects>
        <_>
          2 7 2 3 -1.</_>
        <_>
          2 8 2 1 3.</_></rects>
      <tilted>0</tilted></_>
    <_>
      <rects>
        <_>
          2 9 2 3 -1.</_>
        <_>
          2 10 2 1 3.</_></rects>
      <tilted>0</tilted></_>
    <_>
      <rects>
        <_>
          2 13 3 2 -1.</_>
        <_>
          2 14 3 1 2.</_></rects>
      <tilted>0</tilted></_>
    <_>
      <rects>
        <_>
          2 13 4 4 -1.</_>
        <_>
          2 15 4 2 2.</_></rects>
      <tilted>0</tilted></_>
    <_>
      <rects>
        <_>
          2 16 10 2 -1.</_>
        <_>
          2 17 10 1 2.</_></rects>
      <tilted>0</tilted></_>
    <_>
      <rects>
        <_>
          2 17 14 2 -1.</_>
        <_>
          9 17 7 2 2.</_></rects>
      <tilted>0</tilted></_>
    <_>
      <rects>
        <_>
          2 18 2 1 -1.</_>
        <_>
          3 18 1 1 2.</_></rects>
      <tilted>0</tilted></_>
    <_>
      <rects>
        <_>
          3 0 9 5 -1.</_>
        <_>
          6 0 3 5 3.</_></rects>
      <tilted>0</tilted></_>
    <_>
      <rects>
        <_>
          3 0 14 6 -1.</_>
        <_>
          3 2 14 2 3.</_></rects>
      <tilted>0</tilted></_>
    <_>
      <rects>
        <_>
          3 2 6 10 -1.</_>
        <_>
          3 2 3 5 2.</_>
        <_>
          6 7 3 5 2.</_></rects>
      <tilted>0</tilted></_>
    <_>
      <rects>
        <_>
          3 4 12 8 -1.</_>
        <_>
          7 4 4 8 3.</_></rects>
      <tilted>0</tilted></_>
    <_>
      <rects>
        <_>
          3 7 6 10 -1.</_>
        <_>
          3 7 3 5 2.</_>
        <_>
          6 12 3 5 2.</_></rects>
      <tilted>0</tilted></_>
    <_>
      <rects>
        <_>
          3 12 2 6 -1.</_>
        <_>
          4 12 1 6 2.</_></rects>
      <tilted>0</tilted></_>
    <_>
      <rects>
        <_>
          3 15 6 2 -1.</_>
        <_>
          3 15 3 1 2.</_>
        <_>
          6 16 3 1 2.</_></rects>
      <tilted>0</tilted></_>
    <_>
      <rects>
        <_>
          3 18 12 2 -1.</_>
        <_>
          3 19 12 1 2.</_></rects>
      <tilted>0</tilted></_>
    <_>
      <rects>
        <_>
          4 0 13 6 -1.</_>
        <_>
          4 2 13 2 3.</_></rects>
      <tilted>0</tilted></_>
    <_>
      <rects>
        <_>
          4 0 14 6 -1.</_>
        <_>
          4 2 14 2 3.</_></rects>
      <tilted>0</tilted></_>
    <_>
      <rects>
        <_>
          4 2 4 8 -1.</_>
        <_>
          4 2 2 4 2.</_>
        <_>
          6 6 2 4 2.</_></rects>
      <tilted>0</tilted></_>
    <_>
      <rects>
        <_>
          4 2 12 4 -1.</_>
        <_>
          4 4 12 2 2.</_></rects>
      <tilted>0</tilted></_>
    <_>
      <rects>
        <_>
          4 15 12 4 -1.</_>
        <_>
          4 17 12 2 2.</_></rects>
      <tilted>0</tilted></_>
    <_>
      <rects>
        <_>
          4 18 12 2 -1.</_>
        <_>
          4 19 12 1 2.</_></rects>
      <tilted>0</tilted></_>
    <_>
      <rects>
        <_>
          4 18 13 2 -1.</_>
        <_>
          4 19 13 1 2.</_></rects>
      <tilted>0</tilted></_>
    <_>
      <rects>
        <_>
          5 0 3 4 -1.</_>
        <_>
          6 0 1 4 3.</_></rects>
      <tilted>0</tilted></_>
    <_>
      <rects>
        <_>
          5 0 9 1 -1.</_>
        <_>
          8 0 3 1 3.</_></rects>
      <tilted>0</tilted></_>
    <_>
      <rects>
        <_>
          5 0 10 2 -1.</_>
        <_>
          5 1 10 1 2.</_></rects>
      <tilted>0</tilted></_>
    <_>
      <rects>
        <_>
          5 1 12 3 -1.</_>
        <_>
          5 2 12 1 3.</_></rects>
      <tilted>0</tilted></_>
    <_>
      <rects>
        <_>
          5 1 15 3 -1.</_>
        <_>
          5 2 15 1 3.</_></rects>
      <tilted>0</tilted></_>
    <_>
      <rects>
        <_>
          5 2 9 2 -1.</_>
        <_>
          5 3 9 1 2.</_></rects>
      <tilted>0</tilted></_>
    <_>
      <rects>
        <_>
          5 4 2 4 -1.</_>
        <_>
          5 4 1 2 2.</_>
        <_>
          6 6 1 2 2.</_></rects>
      <tilted>0</tilted></_>
    <_>
      <rects>
        <_>
          5 8 4 12 -1.</_>
        <_>
          5 8 2 6 2.</_>
        <_>
          7 14 2 6 2.</_></rects>
      <tilted>0</tilted></_>
    <_>
      <rects>
        <_>
          5 9 11 2 -1.</_>
        <_>
          5 10 11 1 2.</_></rects>
      <tilted>0</tilted></_>
    <_>
      <rects>
        <_>
          5 11 2 6 -1.</_>
        <_>
          6 11 1 6 2.</_></rects>
      <tilted>0</tilted></_>
    <_>
      <rects>
        <_>
          5 11 4 4 -1.</_>
        <_>
          5 11 2 2 2.</_>
        <_>
          7 13 2 2 2.</_></rects>
      <tilted>0</tilted></_>
    <_>
      <rects>
        <_>
          5 16 11 2 -1.</_>
        <_>
          5 17 11 1 2.</_></rects>
      <tilted>0</tilted></_>
    <_>
      <rects>
        <_>
          5 16 13 2 -1.</_>
        <_>
          5 17 13 1 2.</_></rects>
      <tilted>0</tilted></_>
    <_>
      <rects>
        <_>
          5 17 9 3 -1.</_>
        <_>
          8 17 3 3 3.</_></rects>
      <tilted>0</tilted></_>
    <_>
      <rects>
        <_>
          5 17 15 2 -1.</_>
        <_>
          10 17 5 2 3.</_></rects>
      <tilted>0</tilted></_>
    <_>
      <rects>
        <_>
          5 18 10 1 -1.</_>
        <_>
          10 18 5 1 2.</_></rects>
      <tilted>0</tilted></_>
    <_>
      <rects>
        <_>
          6 1 9 2 -1.</_>
        <_>
          9 1 3 2 3.</_></rects>
      <tilted>0</tilted></_>
    <_>
      <rects>
        <_>
          6 2 8 1 -1.</_>
        <_>
          10 2 4 1 2.</_></rects>
      <tilted>0</tilted></_>
    <_>
      <rects>
        <_>
          6 3 2 4 -1.</_>
        <_>
          6 3 1 2 2.</_>
        <_>
          7 5 1 2 2.</_></rects>
      <tilted>0</tilted></_>
    <_>
      <rects>
        <_>
          6 7 3 3 -1.</_>
        <_>
          7 7 1 3 3.</_></rects>
      <tilted>0</tilted></_>
    <_>
      <rects>
        <_>
          6 9 2 10 -1.</_>
        <_>
          6 9 1 5 2.</_>
        <_>
          7 14 1 5 2.</_></rects>
      <tilted>0</tilted></_>
    <_>
      <rects>
        <_>
          6 9 8 2 -1.</_>
        <_>
          6 10 8 1 2.</_></rects>
      <tilted>0</tilted></_>
    <_>
      <rects>
        <_>
          6 12 4 2 -1.</_>
        <_>
          6 12 2 1 2.</_>
        <_>
          8 13 2 1 2.</_></rects>
      <tilted>0</tilted></_>
    <_>
      <rects>
        <_>
          6 17 12 2 -1.</_>
        <_>
          10 17 4 2 3.</_></rects>
      <tilted>0</tilted></_>
    <_>
      <rects>
        <_>
          6 17 8 3 -1.</_>
        <_>
          6 18 8 1 3.</_></rects>
      <tilted>0</tilted></_>
    <_>
      <rects>
        <_>
          6 17 10 3 -1.</_>
        <_>
          6 18 10 1 3.</_></rects>
      <tilted>0</tilted></_>
    <_>
      <rects>
        <_>
          6 18 9 1 -1.</_>
        <_>
          9 18 3 1 3.</_></rects>
      <tilted>0</tilted></_>
    <_>
      <rects>
        <_>
          6 18 9 2 -1.</_>
        <_>
          9 18 3 2 3.</_></rects>
      <tilted>0</tilted></_>
    <_>
      <rects>
        <_>
          6 18 10 2 -1.</_>
        <_>
          6 18 5 1 2.</_>
        <_>
          11 19 5 1 2.</_></rects>
      <tilted>0</tilted></_>
    <_>
      <rects>
        <_>
          6 18 13 2 -1.</_>
        <_>
          6 19 13 1 2.</_></rects>
      <tilted>0</tilted></_>
    <_>
      <rects>
        <_>
          7 0 2 3 -1.</_>
        <_>
          8 0 1 3 2.</_></rects>
      <tilted>0</tilted></_>
    <_>
      <rects>
        <_>
          7 1 6 2 -1.</_>
        <_>
          9 1 2 2 3.</_></rects>
      <tilted>0</tilted></_>
    <_>
      <rects>
        <_>
          7 2 3 2 -1.</_>
        <_>
          8 2 1 2 3.</_></rects>
      <tilted>0</tilted></_>
    <_>
      <rects>
        <_>
          7 3 1 12 -1.</_>
        <_>
          7 7 1 4 3.</_></rects>
      <tilted>0</tilted></_>
    <_>
      <rects>
        <_>
          7 4 1 9 -1.</_>
        <_>
          7 7 1 3 3.</_></rects>
      <tilted>0</tilted></_>
    <_>
      <rects>
        <_>
          7 4 6 9 -1.</_>
        <_>
          7 7 6 3 3.</_></rects>
      <tilted>0</tilted></_>
    <_>
      <rects>
        <_>
          7 6 4 4 -1.</_>
        <_>
          9 6 2 4 2.</_></rects>
      <tilted>0</tilted></_>
    <_>
      <rects>
        <_>
          7 7 6 2 -1.</_>
        <_>
          9 7 2 2 3.</_></rects>
      <tilted>0</tilted></_>
    <_>
      <rects>
        <_>
          7 7 9 3 -1.</_>
        <_>
          10 7 3 3 3.</_></rects>
      <tilted>0</tilted></_>
    <_>
      <rects>
        <_>
          7 7 8 3 -1.</_>
        <_>
          11 7 4 3 2.</_></rects>
      <tilted>0</tilted></_>
    <_>
      <rects>
        <_>
          7 7 10 6 -1.</_>
        <_>
          7 7 5 3 2.</_>
        <_>
          12 10 5 3 2.</_></rects>
      <tilted>0</tilted></_>
    <_>
      <rects>
        <_>
          7 7 10 10 -1.</_>
        <_>
          7 7 5 5 2.</_>
        <_>
          12 12 5 5 2.</_></rects>
      <tilted>0</tilted></_>
    <_>
      <rects>
        <_>
          7 8 1 3 -1.</_>
        <_>
          7 9 1 1 3.</_></rects>
      <tilted>0</tilted></_>
    <_>
      <rects>
        <_>
          7 8 6 4 -1.</_>
        <_>
          7 10 6 2 2.</_></rects>
      <tilted>0</tilted></_>
    <_>
      <rects>
        <_>
          7 11 2 4 -1.</_>
        <_>
          7 11 1 2 2.</_>
        <_>
          8 13 1 2 2.</_></rects>
      <tilted>0</tilted></_>
    <_>
      <rects>
        <_>
          7 18 6 2 -1.</_>
        <_>
          9 18 2 2 3.</_></rects>
      <tilted>0</tilted></_>
    <_>
      <rects>
        <_>
          8 1 6 3 -1.</_>
        <_>
          10 1 2 3 3.</_></rects>
      <tilted>0</tilted></_>
    <_>
      <rects>
        <_>
          8 3 3 12 -1.</_>
        <_>
          8 7 3 4 3.</_></rects>
      <tilted>0</tilted></_>
    <_>
      <rects>
        <_>
          8 4 12 6 -1.</_>
        <_>
          8 4 6 3 2.</_>
        <_>
          14 7 6 3 2.</_></rects>
      <tilted>0</tilted></_>
    <_>
      <rects>
        <_>
          8 5 10 4 -1.</_>
        <_>
          8 5 5 2 2.</_>
        <_>
          13 7 5 2 2.</_></rects>
      <tilted>0</tilted></_>
    <_>
      <rects>
        <_>
          8 6 9 1 -1.</_>
        <_>
          11 6 3 1 3.</_></rects>
      <tilted>0</tilted></_>
    <_>
      <rects>
        <_>
          8 8 3 3 -1.</_>
        <_>
          9 8 1 3 3.</_></rects>
      <tilted>0</tilted></_>
    <_>
      <rects>
        <_>
          8 8 5 4 -1.</_>
        <_>
          8 10 5 2 2.</_></rects>
      <tilted>0</tilted></_>
    <_>
      <rects>
        <_>
          9 8 2 3 -1.</_>
        <_>
          9 9 2 1 3.</_></rects>
      <tilted>0</tilted></_>
    <_>
      <rects>
        <_>
          9 8 4 2 -1.</_>
        <_>
          9 9 4 1 2.</_></rects>
      <tilted>0</tilted></_>
    <_>
      <rects>
        <_>
          9 10 6 2 -1.</_>
        <_>
          12 10 3 2 2.</_></rects>
      <tilted>0</tilted></_>
    <_>
      <rects>
        <_>
          9 11 4 4 -1.</_>
        <_>
          9 11 2 2 2.</_>
        <_>
          11 13 2 2 2.</_></rects>
      <tilted>0</tilted></_>
    <_>
      <rects>
        <_>
          9 11 9 1 -1.</_>
        <_>
          12 11 3 1 3.</_></rects>
      <tilted>0</tilted></_>
    <_>
      <rects>
        <_>
          9 16 3 2 -1.</_>
        <_>
          10 16 1 2 3.</_></rects>
      <tilted>0</tilted></_>
    <_>
      <rects>
        <_>
          9 17 4 2 -1.</_>
        <_>
          9 17 2 1 2.</_>
        <_>
          11 18 2 1 2.</_></rects>
      <tilted>0</tilted></_>
    <_>
      <rects>
        <_>
          10 3 1 12 -1.</_>
        <_>
          10 7 1 4 3.</_></rects>
      <tilted>0</tilted></_>
    <_>
      <rects>
        <_>
          10 3 4 8 -1.</_>
        <_>
          10 3 2 4 2.</_>
        <_>
          12 7 2 4 2.</_></rects>
      <tilted>0</tilted></_>
    <_>
      <rects>
        <_>
          10 5 4 6 -1.</_>
        <_>
          12 5 2 6 2.</_></rects>
      <tilted>0</tilted></_>
    <_>
      <rects>
        <_>
          10 6 2 3 -1.</_>
        <_>
          10 7 2 1 3.</_></rects>
      <tilted>0</tilted></_>
    <_>
      <rects>
        <_>
          10 7 2 3 -1.</_>
        <_>
          11 7 1 3 2.</_></rects>
      <tilted>0</tilted></_>
    <_>
      <rects>
        <_>
          10 8 2 3 -1.</_>
        <_>
          10 9 2 1 3.</_></rects>
      <tilted>0</tilted></_>
    <_>
      <rects>
        <_>
          11 4 2 2 -1.</_>
        <_>
          11 4 1 1 2.</_>
        <_>
          12 5 1 1 2.</_></rects>
      <tilted>0</tilted></_>
    <_>
      <rects>
        <_>
          11 5 7 2 -1.</_>
        <_>
          11 6 7 1 2.</_></rects>
      <tilted>0</tilted></_>
    <_>
      <rects>
        <_>
          11 7 1 3 -1.</_>
        <_>
          11 8 1 1 3.</_></rects>
      <tilted>0</tilted></_>
    <_>
      <rects>
        <_>
          11 7 2 3 -1.</_>
        <_>
          11 8 2 1 3.</_></rects>
      <tilted>0</tilted></_>
    <_>
      <rects>
        <_>
          11 7 4 4 -1.</_>
        <_>
          11 7 2 2 2.</_>
        <_>
          13 9 2 2 2.</_></rects>
      <tilted>0</tilted></_>
    <_>
      <rects>
        <_>
          11 9 3 2 -1.</_>
        <_>
          12 9 1 2 3.</_></rects>
      <tilted>0</tilted></_>
    <_>
      <rects>
        <_>
          11 10 6 2 -1.</_>
        <_>
          13 10 2 2 3.</_></rects>
      <tilted>0</tilted></_>
    <_>
      <rects>
        <_>
          11 16 2 4 -1.</_>
        <_>
          11 16 1 2 2.</_>
        <_>
          12 18 1 2 2.</_></rects>
      <tilted>0</tilted></_>
    <_>
      <rects>
        <_>
          11 17 3 1 -1.</_>
        <_>
          12 17 1 1 3.</_></rects>
      <tilted>0</tilted></_>
    <_>
      <rects>
        <_>
          11 18 6 2 -1.</_>
        <_>
          11 19 6 1 2.</_></rects>
      <tilted>0</tilted></_>
    <_>
      <rects>
        <_>
          12 0 2 5 -1.</_>
        <_>
          13 0 1 5 2.</_></rects>
      <tilted>0</tilted></_>
    <_>
      <rects>
        <_>
          12 0 8 8 -1.</_>
        <_>
          12 0 4 4 2.</_>
        <_>
          16 4 4 4 2.</_></rects>
      <tilted>0</tilted></_>
    <_>
      <rects>
        <_>
          12 2 2 15 -1.</_>
        <_>
          12 7 2 5 3.</_></rects>
      <tilted>0</tilted></_>
    <_>
      <rects>
        <_>
          12 5 2 1 -1.</_>
        <_>
          13 5 1 1 2.</_></rects>
      <tilted>0</tilted></_>
    <_>
      <rects>
        <_>
          12 7 2 4 -1.</_>
        <_>
          12 7 1 2 2.</_>
        <_>
          13 9 1 2 2.</_></rects>
      <tilted>0</tilted></_>
    <_>
      <rects>
        <_>
          12 8 1 2 -1.</_>
        <_>
          12 9 1 1 2.</_></rects>
      <tilted>0</tilted></_>
    <_>
      <rects>
        <_>
          12 8 2 2 -1.</_>
        <_>
          12 8 1 1 2.</_>
        <_>
          13 9 1 1 2.</_></rects>
      <tilted>0</tilted></_>
    <_>
      <rects>
        <_>
          12 8 2 6 -1.</_>
        <_>
          12 8 1 3 2.</_>
        <_>
          13 11 1 3 2.</_></rects>
      <tilted>0</tilted></_>
    <_>
      <rects>
        <_>
          12 9 3 5 -1.</_>
        <_>
          13 9 1 5 3.</_></rects>
      <tilted>0</tilted></_>
    <_>
      <rects>
        <_>
          12 10 3 3 -1.</_>
        <_>
          13 10 1 3 3.</_></rects>
      <tilted>0</tilted></_>
    <_>
      <rects>
        <_>
          12 11 3 1 -1.</_>
        <_>
          13 11 1 1 3.</_></rects>
      <tilted>0</tilted></_>
    <_>
      <rects>
        <_>
          12 11 3 2 -1.</_>
        <_>
          13 11 1 2 3.</_></rects>
      <tilted>0</tilted></_>
    <_>
      <rects>
        <_>
          12 11 3 3 -1.</_>
        <_>
          13 11 1 3 3.</_></rects>
      <tilted>0</tilted></_>
    <_>
      <rects>
        <_>
          12 12 3 1 -1.</_>
        <_>
          13 12 1 1 3.</_></rects>
      <tilted>0</tilted></_>
    <_>
      <rects>
        <_>
          12 12 3 2 -1.</_>
        <_>
          13 12 1 2 3.</_></rects>
      <tilted>0</tilted></_>
    <_>
      <rects>
        <_>
          12 12 6 4 -1.</_>
        <_>
          12 12 3 2 2.</_>
        <_>
          15 14 3 2 2.</_></rects>
      <tilted>0</tilted></_>
    <_>
      <rects>
        <_>
          13 2 4 8 -1.</_>
        <_>
          13 2 2 4 2.</_>
        <_>
          15 6 2 4 2.</_></rects>
      <tilted>0</tilted></_>
    <_>
      <rects>
        <_>
          13 5 4 6 -1.</_>
        <_>
          13 5 2 3 2.</_>
        <_>
          15 8 2 3 2.</_></rects>
      <tilted>0</tilted></_>
    <_>
      <rects>
        <_>
          13 6 2 1 -1.</_>
        <_>
          14 6 1 1 2.</_></rects>
      <tilted>0</tilted></_>
    <_>
      <rects>
        <_>
          13 6 2 8 -1.</_>
        <_>
          13 6 1 4 2.</_>
        <_>
          14 10 1 4 2.</_></rects>
      <tilted>0</tilted></_>
    <_>
      <rects>
        <_>
          13 6 6 8 -1.</_>
        <_>
          15 6 2 8 3.</_></rects>
      <tilted>0</tilted></_>
    <_>
      <rects>
        <_>
          13 6 6 9 -1.</_>
        <_>
          15 6 2 9 3.</_></rects>
      <tilted>0</tilted></_>
    <_>
      <rects>
        <_>
          13 7 6 7 -1.</_>
        <_>
          15 7 2 7 3.</_></rects>
      <tilted>0</tilted></_>
    <_>
      <rects>
        <_>
          13 7 5 6 -1.</_>
        <_>
          13 9 5 2 3.</_></rects>
      <tilted>0</tilted></_>
    <_>
      <rects>
        <_>
          13 8 4 10 -1.</_>
        <_>
          13 8 2 5 2.</_>
        <_>
          15 13 2 5 2.</_></rects>
      <tilted>0</tilted></_>
    <_>
      <rects>
        <_>
          13 9 3 2 -1.</_>
        <_>
          14 9 1 2 3.</_></rects>
      <tilted>0</tilted></_>
    <_>
      <rects>
        <_>
          13 9 3 3 -1.</_>
        <_>
          14 9 1 3 3.</_></rects>
      <tilted>0</tilted></_>
    <_>
      <rects>
        <_>
          13 10 3 1 -1.</_>
        <_>
          14 10 1 1 3.</_></rects>
      <tilted>0</tilted></_>
    <_>
      <rects>
        <_>
          13 10 3 2 -1.</_>
        <_>
          14 10 1 2 3.</_></rects>
      <tilted>0</tilted></_>
    <_>
      <rects>
        <_>
          13 10 3 3 -1.</_>
        <_>
          14 10 1 3 3.</_></rects>
      <tilted>0</tilted></_>
    <_>
      <rects>
        <_>
          13 10 2 6 -1.</_>
        <_>
          13 13 2 3 2.</_></rects>
      <tilted>0</tilted></_>
    <_>
      <rects>
        <_>
          13 11 3 1 -1.</_>
        <_>
          14 11 1 1 3.</_></rects>
      <tilted>0</tilted></_>
    <_>
      <rects>
        <_>
          13 11 3 3 -1.</_>
        <_>
          14 11 1 3 3.</_></rects>
      <tilted>0</tilted></_>
    <_>
      <rects>
        <_>
          13 12 6 6 -1.</_>
        <_>
          13 12 3 3 2.</_>
        <_>
          16 15 3 3 2.</_></rects>
      <tilted>0</tilted></_>
    <_>
      <rects>
        <_>
          13 16 2 3 -1.</_>
        <_>
          14 16 1 3 2.</_></rects>
      <tilted>0</tilted></_>
    <_>
      <rects>
        <_>
          14 4 6 4 -1.</_>
        <_>
          14 6 6 2 2.</_></rects>
      <tilted>0</tilted></_>
    <_>
      <rects>
        <_>
          14 8 6 6 -1.</_>
        <_>
          14 10 6 2 3.</_></rects>
      <tilted>0</tilted></_>
    <_>
      <rects>
        <_>
          14 12 6 2 -1.</_>
        <_>
          14 12 3 1 2.</_>
        <_>
          17 13 3 1 2.</_></rects>
      <tilted>0</tilted></_>
    <_>
      <rects>
        <_>
          15 0 3 1 -1.</_>
        <_>
          16 0 1 1 3.</_></rects>
      <tilted>0</tilted></_>
    <_>
      <rects>
        <_>
          15 5 4 11 -1.</_>
        <_>
          17 5 2 11 2.</_></rects>
      <tilted>0</tilted></_>
    <_>
      <rects>
        <_>
          15 5 4 12 -1.</_>
        <_>
          17 5 2 12 2.</_></rects>
      <tilted>0</tilted></_>
    <_>
      <rects>
        <_>
          15 8 2 2 -1.</_>
        <_>
          15 8 1 1 2.</_>
        <_>
          16 9 1 1 2.</_></rects>
      <tilted>0</tilted></_>
    <_>
      <rects>
        <_>
          15 9 2 2 -1.</_>
        <_>
          15 10 2 1 2.</_></rects>
      <tilted>0</tilted></_>
    <_>
      <rects>
        <_>
          16 11 4 2 -1.</_>
        <_>
          16 11 2 1 2.</_>
        <_>
          18 12 2 1 2.</_></rects>
      <tilted>0</tilted></_>
    <_>
      <rects>
        <_>
          16 19 4 1 -1.</_>
        <_>
          18 19 2 1 2.</_></rects>
      <tilted>0</tilted></_>
    <_>
      <rects>
        <_>
          17 1 1 18 -1.</_>
        <_>
          17 7 1 6 3.</_></rects>
      <tilted>0</tilted></_>
    <_>
      <rects>
        <_>
          17 4 3 11 -1.</_>
        <_>
          18 4 1 11 3.</_></rects>
      <tilted>0</tilted></_>
    <_>
      <rects>
        <_>
          17 5 2 15 -1.</_>
        <_>
          17 10 2 5 3.</_></rects>
      <tilted>0</tilted></_>
    <_>
      <rects>
        <_>
          17 10 2 4 -1.</_>
        <_>
          17 10 1 2 2.</_>
        <_>
          18 12 1 2 2.</_></rects>
      <tilted>0</tilted></_>
    <_>
      <rects>
        <_>
          17 12 3 2 -1.</_>
        <_>
          17 13 3 1 2.</_></rects>
      <tilted>0</tilted></_>
    <_>
      <rects>
        <_>
          18 2 2 18 -1.</_>
        <_>
          19 2 1 18 2.</_></rects>
      <tilted>0</tilted></_>
    <_>
      <rects>
        <_>
          18 3 2 1 -1.</_>
        <_>
          19 3 1 1 2.</_></rects>
      <tilted>0</tilted></_>
    <_>
      <rects>
        <_>
          18 3 2 12 -1.</_>
        <_>
          19 3 1 12 2.</_></rects>
      <tilted>0</tilted></_>
    <_>
      <rects>
        <_>
          18 3 2 17 -1.</_>
        <_>
          19 3 1 17 2.</_></rects>
      <tilted>0</tilted></_>
    <_>
      <rects>
        <_>
          18 6 1 12 -1.</_>
        <_>
          18 10 1 4 3.</_></rects>
      <tilted>0</tilted></_>
    <_>
      <rects>
        <_>
          18 6 2 8 -1.</_>
        <_>
          18 6 1 4 2.</_>
        <_>
          19 10 1 4 2.</_></rects>
      <tilted>0</tilted></_>
    <_>
      <rects>
        <_>
          18 6 2 14 -1.</_>
        <_>
          19 6 1 14 2.</_></rects>
      <tilted>0</tilted></_>
    <_>
      <rects>
        <_>
          18 7 1 8 -1.</_>
        <_>
          18 11 1 4 2.</_></rects>
      <tilted>0</tilted></_>
    <_>
      <rects>
        <_>
          18 7 2 10 -1.</_>
        <_>
          19 7 1 10 2.</_></rects>
      <tilted>0</tilted></_>
    <_>
      <rects>
        <_>
          18 7 2 6 -1.</_>
        <_>
          18 9 2 2 3.</_></rects>
      <tilted>0</tilted></_>
    <_>
      <rects>
        <_>
          18 8 2 7 -1.</_>
        <_>
          19 8 1 7 2.</_></rects>
      <tilted>0</tilted></_>
    <_>
      <rects>
        <_>
          18 8 2 6 -1.</_>
        <_>
          18 10 2 2 3.</_></rects>
      <tilted>0</tilted></_>
    <_>
      <rects>
        <_>
          19 6 1 9 -1.</_>
        <_>
          19 9 1 3 3.</_></rects>
      <tilted>0</tilted></_></features></cascade>
</opencv_storage>
